<?xml version="1.0"?>
<opencv_storage>
<cascade>
  <stageType>BOOST</stageType>
  <featureType>LBP</featureType>
  <height>100</height>
  <width>50</width>
  <stageParams>
    <boostType>GAB</boostType>
    <minHitRate>9.9500000476837158e-01</minHitRate>
    <maxFalseAlarm>8.9999997615814209e-01</maxFalseAlarm>
    <weightTrimRate>9.4999999999999996e-01</weightTrimRate>
    <maxDepth>1</maxDepth>
    <maxWeakCount>100</maxWeakCount></stageParams>
  <featureParams>
    <maxCatCount>256</maxCatCount>
    <featSize>1</featSize></featureParams>
  <stageNum>3</stageNum>
  <stages>
    <!-- stage 0 -->
    <_>
      <maxWeakCount>3</maxWeakCount>
      <stageThreshold>-9.9381178617477417e-01</stageThreshold>
      <weakClassifiers>
        <_>
          <internalNodes>
            0 -1 1 -134221841 -143671297 -16782366 -268456017 -168296449
            2004221799 -167794833 -167772481</internalNodes>
          <leafValues>
            -7.4603176116943359e-01 7.8723406791687012e-01</leafValues></_>
        <_>
          <internalNodes>
            0 -1 8 -252711001 -465117137 -800372453 -1068842094
            1241727851 1216430275 -766813693 -134748305</internalNodes>
          <leafValues>
            -8.0171400308609009e-01 6.4992296695709229e-01</leafValues></_>
        <_>
          <internalNodes>
            0 -1 6 -5462 1946907403 -519974782 -244976877 -527988206
            1074811011 -1060642353 2004343743</internalNodes>
          <leafValues>
            -8.6028373241424561e-01 5.5393397808074951e-01</leafValues></_></weakClassifiers></_>
    <!-- stage 1 -->
    <_>
      <maxWeakCount>3</maxWeakCount>
      <stageThreshold>-1.0002604722976685e+00</stageThreshold>
      <weakClassifiers>
        <_>
          <internalNodes>
            0 -1 0 -304092253 -851053985 -1056190449 -1542458861
            -112723967 -125337468 -1014647679 -167777305</internalNodes>
          <leafValues>
            -7.4677002429962158e-01 6.4196342229843140e-01</leafValues></_>
        <_>
          <internalNodes>
            0 -1 3 -146277914 -178875702 -2129051510 -135323765
            -137240339 1359691849 -672717173 1711274683</internalNodes>
          <leafValues>
            -8.2000571489334106e-01 5.5348438024520874e-01</leafValues></_>
        <_>
          <internalNodes>
            0 -1 7 -218104285 -1068125482 -784234486 -1059859777
            -782502985 1082384897 1686858270 -185338005</internalNodes>
          <leafValues>
            -7.4031239748001099e-01 5.6651520729064941e-01</leafValues></_></weakClassifiers></_>
    <!-- stage 2 -->
    <_>
      <maxWeakCount>3</maxWeakCount>
      <stageThreshold>-9.7143959999084473e-01</stageThreshold>
      <weakClassifiers>
        <_>
          <internalNodes>
            0 -1 2 -1118046737 -136998475 -750399104 -269103687
            -1282802181 1694885450 -779355201 -705694012</internalNodes>
          <leafValues>
            -6.9336777925491333e-01 5.8229064941406250e-01</leafValues></_>
        <_>
          <internalNodes>
            0 -1 5 -204098974 -203451590 1128269201 -540158499 -91514890
            -368396275 -1098155141 549837504</internalNodes>
          <leafValues>
            -8.0069994926452637e-01 4.4581732153892517e-01</leafValues></_>
        <_>
          <internalNodes>
            0 -1 4 -641473050 629313758 1895829909 -839790177 -254151937
            -351795048 -172453257 -438306105</internalNodes>
          <leafValues>
            -6.8199831247329712e-01 5.2262812852859497e-01</leafValues></_></weakClassifiers></_></stages>
  <features>
    <_>
      <rect>
        0 17 10 24</rect></_>
    <_>
      <rect>
        0 29 15 14</rect></_>
    <_>
      <rect>
        0 30 16 16</rect></_>
    <_>
      <rect>
        2 12 16 19</rect></_>
    <_>
      <rect>
        2 50 8 8</rect></_>
    <_>
      <rect>
        5 3 15 9</rect></_>
    <_>
      <rect>
        5 12 15 27</rect></_>
    <_>
      <rect>
        17 14 11 23</rect></_>
    <_>
      <rect>
        23 31 9 14</rect></_></features></cascade>
</opencv_storage>
