<?xml version="1.0"?>
<opencv_storage>
<cascade>
  <stageType>BOOST</stageType>
  <featureType>LBP</featureType>
  <height>100</height>
  <width>50</width>
  <stageParams>
    <boostType>GAB</boostType>
    <minHitRate>9.9900001287460327e-01</minHitRate>
    <maxFalseAlarm>5.0000000745058060e-02</maxFalseAlarm>
    <weightTrimRate>9.4999999999999996e-01</weightTrimRate>
    <maxDepth>1</maxDepth>
    <maxWeakCount>100</maxWeakCount></stageParams>
  <featureParams>
    <maxCatCount>256</maxCatCount>
    <featSize>1</featSize></featureParams>
  <stageNum>8</stageNum>
  <stages>
    <!-- stage 0 -->
    <_>
      <maxWeakCount>7</maxWeakCount>
      <stageThreshold>-9.2739331722259521e-01</stageThreshold>
      <weakClassifiers>
        <_>
          <internalNodes>
            0 -1 5 -134221841 -143671297 -16782366 -268456017 -168296449
            2004221799 -167794833 -167772481</internalNodes>
          <leafValues>
            -7.4603176116943359e-01 7.8723406791687012e-01</leafValues></_>
        <_>
          <internalNodes>
            0 -1 72 -252711001 -465117137 -800372453 -1068842094
            1241727851 1216430275 -766813693 -134748305</internalNodes>
          <leafValues>
            -8.0171400308609009e-01 6.4992296695709229e-01</leafValues></_>
        <_>
          <internalNodes>
            0 -1 24 -5462 1946907403 -519974782 -244976877 -527988206
            1074811011 -1060642353 2004343743</internalNodes>
          <leafValues>
            -8.6028373241424561e-01 5.5393397808074951e-01</leafValues></_>
        <_>
          <internalNodes>
            0 -1 4 -338696281 1303376065 -2147303389 597935626
            -536622575 -1056866287 -1576802128 -961020985</internalNodes>
          <leafValues>
            -7.5390410423278809e-01 6.5283817052841187e-01</leafValues></_>
        <_>
          <internalNodes>
            0 -1 10 -591134778 -221154989 -2130673572 -16478069
            -892743482 -1055422461 -939458005 1467475263</internalNodes>
          <leafValues>
            -7.0601475238800049e-01 6.3807922601699829e-01</leafValues></_>
        <_>
          <internalNodes>
            0 -1 78 -252779977 -2008546401 1141497930 -2146975573
            -800136605 1082228864 1090672641 -681057161</internalNodes>
          <leafValues>
            -7.1507602930068970e-01 6.5339416265487671e-01</leafValues></_>
        <_>
          <internalNodes>
            0 -1 69 -455166338 2115144451 -1073593698 34508807
            -934712603 -1330487168 -1819706870 1063250879</internalNodes>
          <leafValues>
            -7.4348938465118408e-01 5.8846920728683472e-01</leafValues></_></weakClassifiers></_>
    <!-- stage 1 -->
    <_>
      <maxWeakCount>11</maxWeakCount>
      <stageThreshold>-1.5162773430347443e-01</stageThreshold>
      <weakClassifiers>
        <_>
          <internalNodes>
            0 -1 14 -145 -42500622 2147413995 -278529 -142606433
            1425534935 -553665281 -134217985</internalNodes>
          <leafValues>
            -5.8744394779205322e-01 6.7981439828872681e-01</leafValues></_>
        <_>
          <internalNodes>
            0 -1 19 -1009024288 -137789006 30050647 -45725667
            -1182217737 -1297514022 -1744790629 1910897157</internalNodes>
          <leafValues>
            -7.5100290775299072e-01 4.8122227191925049e-01</leafValues></_>
        <_>
          <internalNodes>
            0 -1 41 918833108 1570068023 -1790646833 488395206
            2039032190 -81868663 1594440174 2141857850</internalNodes>
          <leafValues>
            -6.9205766916275024e-01 4.8615142703056335e-01</leafValues></_>
        <_>
          <internalNodes>
            0 -1 37 -2118861 -1448098622 -1052683946 -1926000289
            -37141087 579963014 -632954688 1214246391</internalNodes>
          <leafValues>
            -6.9755315780639648e-01 4.7825396060943604e-01</leafValues></_>
        <_>
          <internalNodes>
            0 -1 55 -303038769 -260046930 -4198486 -185073729 100368381
            -453443593 -176193922 -1573130</internalNodes>
          <leafValues>
            -5.6228059530258179e-01 6.1745136976242065e-01</leafValues></_>
        <_>
          <internalNodes>
            0 -1 8 -238569993 1057931673 -645805476 -1077018152
            956308859 2064748672 -71230835 -1156436</internalNodes>
          <leafValues>
            -5.8643257617950439e-01 5.9356635808944702e-01</leafValues></_>
        <_>
          <internalNodes>
            0 -1 59 16785552 -1258090377 -1862008514 1058897920
            1220658937 -1685254103 -1727166325 -1207694036</internalNodes>
          <leafValues>
            -6.7742353677749634e-01 5.4623800516128540e-01</leafValues></_>
        <_>
          <internalNodes>
            0 -1 57 357661173 936399026 890343453 -1077575270 444705261
            -1079336311 193552428 233686156</internalNodes>
          <leafValues>
            -6.3452774286270142e-01 5.3941392898559570e-01</leafValues></_>
        <_>
          <internalNodes>
            0 -1 84 -983051226 -854867551 -1862259237 -443449140
            2031078594 -104617722 -201196823 116713923</internalNodes>
          <leafValues>
            -6.9009220600128174e-01 4.9343946576118469e-01</leafValues></_>
        <_>
          <internalNodes>
            0 -1 96 -228330001 -747812479 -1879031318 1922214731
            2009096205 -1174290303 -97932402 1588046461</internalNodes>
          <leafValues>
            -6.7024445533752441e-01 5.6934690475463867e-01</leafValues></_>
        <_>
          <internalNodes>
            0 -1 25 818360812 -544849450 25482114 -318678846 1484855215
            1367837452 -1584431441 -206772148</internalNodes>
          <leafValues>
            -7.6994520425796509e-01 4.7177556157112122e-01</leafValues></_></weakClassifiers></_>
    <!-- stage 2 -->
    <_>
      <maxWeakCount>14</maxWeakCount>
      <stageThreshold>-1.2257210016250610e+00</stageThreshold>
      <weakClassifiers>
        <_>
          <internalNodes>
            0 -1 17 -370149405 -1379544073 -754433133 -1746929255
            -830495769 -81031204 -381436939 -406324745</internalNodes>
          <leafValues>
            -7.1169537305831909e-01 5.3327256441116333e-01</leafValues></_>
        <_>
          <internalNodes>
            0 -1 95 -427979041 -11291227 814330279 -55390033 -573887617
            1069254250 -1295138821 1885011739</internalNodes>
          <leafValues>
            -6.4608883857727051e-01 4.6537423133850098e-01</leafValues></_>
        <_>
          <internalNodes>
            0 -1 43 -1926125355 -82122410 -1827159145 798672377
            -1452628747 -41034600 1825000446 -1891872832</internalNodes>
          <leafValues>
            -5.8925819396972656e-01 5.1999866962432861e-01</leafValues></_>
        <_>
          <internalNodes>
            0 -1 79 1188872179 -1325635067 428313663 -317662554
            1548711377 -47019501 -1445499313 -8045833</internalNodes>
          <leafValues>
            -6.4051657915115356e-01 4.8314177989959717e-01</leafValues></_>
        <_>
          <internalNodes>
            0 -1 46 -774797562 -645463459 421615707 -441087890
            -1458863179 -73727969 -1165403462 548534791</internalNodes>
          <leafValues>
            -7.4978351593017578e-01 4.4800579547882080e-01</leafValues></_>
        <_>
          <internalNodes>
            0 -1 93 -1816305739 -2003520484 101003549 -539639268
            815414170 -1414946669 553855237 -877789749</internalNodes>
          <leafValues>
            -6.0908710956573486e-01 4.8460197448730469e-01</leafValues></_>
        <_>
          <internalNodes>
            0 -1 52 1028412285 -1824209201 549658811 1766228973
            -293573941 -1157527536 1528823533 1061976390</internalNodes>
          <leafValues>
            -7.4467420578002930e-01 4.1422834992408752e-01</leafValues></_>
        <_>
          <internalNodes>
            0 -1 18 1093518156 -745521000 291606407 -1078951728
            690657998 1029957132 -1987517258 1706807998</internalNodes>
          <leafValues>
            -7.8363156318664551e-01 3.8032364845275879e-01</leafValues></_>
        <_>
          <internalNodes>
            0 -1 28 2002895115 122626506 -2062335694 387135882
            -1987376929 67960970 -743726411 -1060389909</internalNodes>
          <leafValues>
            -6.0374683141708374e-01 5.1736050844192505e-01</leafValues></_>
        <_>
          <internalNodes>
            0 -1 65 -1378092377 -2147294753 -1874037979 -1006481143
            1568133477 1779114257 -125828233 801094400</internalNodes>
          <leafValues>
            -6.7756611108779907e-01 4.1678136587142944e-01</leafValues></_>
        <_>
          <internalNodes>
            0 -1 58 -586340323 -1751459685 331649182 966587198
            -922113287 -92200284 -1194552361 -1469758921</internalNodes>
          <leafValues>
            -5.8716726303100586e-01 5.1158243417739868e-01</leafValues></_>
        <_>
          <internalNodes>
            0 -1 87 -447503894 -1327930609 83622 675971351 8456308
            245960897 -924911366 499895203</internalNodes>
          <leafValues>
            -8.1152456998825073e-01 3.9559245109558105e-01</leafValues></_>
        <_>
          <internalNodes>
            0 -1 77 400930041 -1141051619 2147465199 -1212154379
            654276317 -536920065 1065286593 -1348522036</internalNodes>
          <leafValues>
            -5.2135324478149414e-01 5.9797698259353638e-01</leafValues></_>
        <_>
          <internalNodes>
            0 -1 71 -894973086 -356360151 294159009 -137900020
            -2142410557 2022474499 -2071502517 -990124191</internalNodes>
          <leafValues>
            -6.3639557361602783e-01 5.1679760217666626e-01</leafValues></_></weakClassifiers></_>
    <!-- stage 3 -->
    <_>
      <maxWeakCount>12</maxWeakCount>
      <stageThreshold>-4.6841168403625488e-01</stageThreshold>
      <weakClassifiers>
        <_>
          <internalNodes>
            0 -1 34 -8437897 -1755079825 -339500114 -1929398137
            -349189355 -200997823 -406531340 -454559762</internalNodes>
          <leafValues>
            -7.0177072286605835e-01 4.9068322777748108e-01</leafValues></_>
        <_>
          <internalNodes>
            0 -1 66 -815796273 1722792383 1601765675 -153683510
            1409260415 365923749 -1092650123 -172257545</internalNodes>
          <leafValues>
            -7.5382274389266968e-01 3.8601994514465332e-01</leafValues></_>
        <_>
          <internalNodes>
            0 -1 80 535557119 -1685128610 -112368819 -1684021546
            898791919 -1080999533 1053444721 167736560</internalNodes>
          <leafValues>
            -7.1821957826614380e-01 4.0547949075698853e-01</leafValues></_>
        <_>
          <internalNodes>
            0 -1 12 1242022718 -79504574 892488123 -1131551608
            -939074821 -121731921 1482922127 -518887322</internalNodes>
          <leafValues>
            -5.6228357553482056e-01 5.3764832019805908e-01</leafValues></_>
        <_>
          <internalNodes>
            0 -1 29 1894665819 396257425 -1311860009 923150294 682131066
            1770108587 -276602884 2133867831</internalNodes>
          <leafValues>
            -7.5459349155426025e-01 3.8288289308547974e-01</leafValues></_>
        <_>
          <internalNodes>
            0 -1 67 -670561723 -1593467919 -2050976359 -7498477
            -1820306705 -1143962679 -1568567655 754208580</internalNodes>
          <leafValues>
            -6.9735085964202881e-01 4.2861986160278320e-01</leafValues></_>
        <_>
          <internalNodes>
            0 -1 3 -956831951 571464141 -1853757509 177901513 -267520943
            -255623013 1254869445 1844964205</internalNodes>
          <leafValues>
            -8.5135209560394287e-01 3.0918428301811218e-01</leafValues></_>
        <_>
          <internalNodes>
            0 -1 101 -293878161 -813312513 -2012372906 -1461167150
            -385665686 -408415957 -1756494690 1962140542</internalNodes>
          <leafValues>
            -6.8194562196731567e-01 4.1626995801925659e-01</leafValues></_>
        <_>
          <internalNodes>
            0 -1 51 1435432959 295637212 -750689928 193132562 1630102001
            327778441 -1974009148 -1612412180</internalNodes>
          <leafValues>
            -5.9293508529663086e-01 5.2495509386062622e-01</leafValues></_>
        <_>
          <internalNodes>
            0 -1 104 648429051 -1298611517 1410547777 -674197459
            -1462353189 -352288568 2068836749 2113459156</internalNodes>
          <leafValues>
            -6.0428547859191895e-01 5.2439737319946289e-01</leafValues></_>
        <_>
          <internalNodes>
            0 -1 49 -1164602606 -2139631201 1291856906 -967520880
            1026273718 1283547778 -1932709292 2120717391</internalNodes>
          <leafValues>
            -8.3848905563354492e-01 3.7169632315635681e-01</leafValues></_>
        <_>
          <internalNodes>
            0 -1 76 2087155647 -1361288739 -2071275196 -1200819830
            -472747659 -167250422 -49499280 2115958479</internalNodes>
          <leafValues>
            -7.2002542018890381e-01 4.1666737198829651e-01</leafValues></_></weakClassifiers></_>
    <!-- stage 4 -->
    <_>
      <maxWeakCount>13</maxWeakCount>
      <stageThreshold>-2.7003213763237000e-01</stageThreshold>
      <weakClassifiers>
        <_>
          <internalNodes>
            0 -1 53 1071544285 2099124209 -1852460803 -1726037942
            1928076204 -39189973 -743675140 268053310</internalNodes>
          <leafValues>
            -6.9092947244644165e-01 3.1905126571655273e-01</leafValues></_>
        <_>
          <internalNodes>
            0 -1 100 938748216 -1550331555 -1786656291 2006964168
            227107659 -1421370615 -1784150572 -1612723205</internalNodes>
          <leafValues>
            -6.4368730783462524e-01 3.8580745458602905e-01</leafValues></_>
        <_>
          <internalNodes>
            0 -1 91 -964761141 -59712011 -1874247589 906527491
            1846937835 -98905982 -487043218 -680072362</internalNodes>
          <leafValues>
            -6.4684730768203735e-01 3.6850178241729736e-01</leafValues></_>
        <_>
          <internalNodes>
            0 -1 26 -859586548 1343283336 -1862183489 2106954287
            -1731376658 -788496000 1669720136 1748852802</internalNodes>
          <leafValues>
            -7.4789351224899292e-01 3.3588367700576782e-01</leafValues></_>
        <_>
          <internalNodes>
            0 -1 83 1494675458 -212742113 6296351 -452726373 -1735732938
            -595490558 -838087160 145226335</internalNodes>
          <leafValues>
            -6.4659976959228516e-01 4.0039703249931335e-01</leafValues></_>
        <_>
          <internalNodes>
            0 -1 27 1405961219 161485919 1442907606 2107412867 -81540901
            1334200456 -2115417870 -469464704</internalNodes>
          <leafValues>
            -6.2657147645950317e-01 3.9592903852462769e-01</leafValues></_>
        <_>
          <internalNodes>
            0 -1 11 1778900915 -35942013 1226389803 1368435048 990397111
            -1347648874 1098920186 1330080135</internalNodes>
          <leafValues>
            -5.1472628116607666e-01 4.8815625905990601e-01</leafValues></_>
        <_>
          <internalNodes>
            0 -1 32 -522222065 -738783085 -1728008050 -1039133607
            159957572 1628144642 220001244 751891590</internalNodes>
          <leafValues>
            -7.2033149003982544e-01 3.4987264871597290e-01</leafValues></_>
        <_>
          <internalNodes>
            0 -1 20 -719872644 806912280 -1051720704 -586413748
            -1876330449 747685889 -938927519 2034724186</internalNodes>
          <leafValues>
            -8.0602687597274780e-01 3.1716704368591309e-01</leafValues></_>
        <_>
          <internalNodes>
            0 -1 60 1565379184 -1176873727 1501611145 -1961062078
            2031756004 -627990397 182617 -825665000</internalNodes>
          <leafValues>
            -5.2506083250045776e-01 4.9796760082244873e-01</leafValues></_>
        <_>
          <internalNodes>
            0 -1 6 16526581 -109166136 -268369705 -1190096871
            -2004757841 -637501437 -2012725000 1065106996</internalNodes>
          <leafValues>
            -6.4966619014739990e-01 3.8247409462928772e-01</leafValues></_>
        <_>
          <internalNodes>
            0 -1 88 -636489048 -1353473893 -805274604 -53508664
            -905287604 1355352454 -2088187813 1361574182</internalNodes>
          <leafValues>
            -7.2899526357650757e-01 3.4146916866302490e-01</leafValues></_>
        <_>
          <internalNodes>
            0 -1 35 -649618362 1679507995 1207980422 -1785786236
            1076582856 -1005090703 -698242962 -1180330389</internalNodes>
          <leafValues>
            -6.2238639593124390e-01 4.2095512151718140e-01</leafValues></_></weakClassifiers></_>
    <!-- stage 5 -->
    <_>
      <maxWeakCount>15</maxWeakCount>
      <stageThreshold>-4.7786304354667664e-01</stageThreshold>
      <weakClassifiers>
        <_>
          <internalNodes>
            0 -1 86 -853917201 -704806335 354485611 -229895905
            -1159882645 -1539571 -1449609073 -189078645</internalNodes>
          <leafValues>
            -5.5871886014938354e-01 3.9776951074600220e-01</leafValues></_>
        <_>
          <internalNodes>
            0 -1 9 -2105676033 -1067765809 -1073444166 2015805528
            -903324036 -77978619 2075900734 1530232687</internalNodes>
          <leafValues>
            -5.7488656044006348e-01 3.7769231200218201e-01</leafValues></_>
        <_>
          <internalNodes>
            0 -1 45 -544805373 1082642571 281273858 -153038381 332376981
            -921448171 -347129813 83350468</internalNodes>
          <leafValues>
            -7.4842298030853271e-01 2.9115077853202820e-01</leafValues></_>
        <_>
          <internalNodes>
            0 -1 13 -2107715026 -2059353996 1124339968 -66706982
            312150414 -662519285 1364068451 1713850962</internalNodes>
          <leafValues>
            -8.5547953844070435e-01 2.5372418761253357e-01</leafValues></_>
        <_>
          <internalNodes>
            0 -1 30 -846127716 1021027091 554801582 -1148829360
            294191549 1487521923 2055742708 2072758666</internalNodes>
          <leafValues>
            -7.7267485857009888e-01 2.5796204805374146e-01</leafValues></_>
        <_>
          <internalNodes>
            0 -1 16 433294751 2102399269 269487114 583688257 1897739006
            1980246665 -514405892 -364150133</internalNodes>
          <leafValues>
            -5.3422117233276367e-01 4.3953472375869751e-01</leafValues></_>
        <_>
          <internalNodes>
            0 -1 105 63636023 -1852980543 1346425881 172816651 537019335
            168296712 -83762501 712896457</internalNodes>
          <leafValues>
            -6.3055491447448730e-01 3.6126708984375000e-01</leafValues></_>
        <_>
          <internalNodes>
            0 -1 61 -2112875421 -149729250 -519507751 -652635885
            -1409166212 -1920974366 813736411 -1361313344</internalNodes>
          <leafValues>
            -5.6422322988510132e-01 4.1652044653892517e-01</leafValues></_>
        <_>
          <internalNodes>
            0 -1 40 1392878123 159564033 -784019450 -405565428
            -1700107739 -905326392 600050480 1100835332</internalNodes>
          <leafValues>
            -7.7254581451416016e-01 3.2988861203193665e-01</leafValues></_>
        <_>
          <internalNodes>
            0 -1 103 401737521 -611885118 -804777550 -988999594
            -771700006 -1970241009 -650030359 543697480</internalNodes>
          <leafValues>
            -6.2129569053649902e-01 3.4495562314987183e-01</leafValues></_>
        <_>
          <internalNodes>
            0 -1 38 -202675753 461372847 988839609 846872447 -1141479672
            -1078165633 -4759652 -9536001</internalNodes>
          <leafValues>
            -4.5524859428405762e-01 5.2208662033081055e-01</leafValues></_>
        <_>
          <internalNodes>
            0 -1 47 -1767850780 -533323098 -2112853610 -283567095
            -1433511196 1767473421 -142079950 205590387</internalNodes>
          <leafValues>
            -7.3530220985412598e-01 3.3279943466186523e-01</leafValues></_>
        <_>
          <internalNodes>
            0 -1 75 1793024982 440689956 1227554894 -239075124 96535230
            570474912 583115076 -464848185</internalNodes>
          <leafValues>
            -5.9139043092727661e-01 4.2330184578895569e-01</leafValues></_>
        <_>
          <internalNodes>
            0 -1 31 -391994870 191430954 1367457818 -1501277936
            1350815982 -301225270 -1878552384 2008510483</internalNodes>
          <leafValues>
            -6.6380500793457031e-01 3.6518195271492004e-01</leafValues></_>
        <_>
          <internalNodes>
            0 -1 99 -204867708 419617053 557933194 -1385959117
            -2117868710 -662576999 -394241776 -1919034647</internalNodes>
          <leafValues>
            -5.7090151309967041e-01 4.2139860987663269e-01</leafValues></_></weakClassifiers></_>
    <!-- stage 6 -->
    <_>
      <maxWeakCount>16</maxWeakCount>
      <stageThreshold>-7.7605295181274414e-01</stageThreshold>
      <weakClassifiers>
        <_>
          <internalNodes>
            0 -1 82 531265431 -1617636899 -788446949 -1143155448
            1540078267 -1450663923 471415212 -1345382304</internalNodes>
          <leafValues>
            -6.1377871036529541e-01 3.1239935755729675e-01</leafValues></_>
        <_>
          <internalNodes>
            0 -1 7 1742439330 -816901815 1437157726 1548849231
            -377235478 841027728 -2120027402 1707314647</internalNodes>
          <leafValues>
            -7.2710537910461426e-01 2.8589138388633728e-01</leafValues></_>
        <_>
          <internalNodes>
            0 -1 22 -53094561 -1152004033 -1710067298 -1839513428
            1652785016 -1249689022 1205075102 -17368435</internalNodes>
          <leafValues>
            -4.5539417862892151e-01 4.8885071277618408e-01</leafValues></_>
        <_>
          <internalNodes>
            0 -1 85 -843063294 1326698854 1895846045 1078243394
            541858384 -828669880 -1282695030 -1537094826</internalNodes>
          <leafValues>
            -7.0787417888641357e-01 3.1496384739875793e-01</leafValues></_>
        <_>
          <internalNodes>
            0 -1 54 2088796753 -652947427 -2058636959 832147818
            -1181957664 -1463287783 -1056732341 744228674</internalNodes>
          <leafValues>
            -5.5675357580184937e-01 3.9112147688865662e-01</leafValues></_>
        <_>
          <internalNodes>
            0 -1 42 -136024497 -184553774 -813764866 1072689142
            -722151868 -1216940297 -159910882 -1141045253</internalNodes>
          <leafValues>
            -4.0384525060653687e-01 5.3435820341110229e-01</leafValues></_>
        <_>
          <internalNodes>
            0 -1 98 1825217976 -6025706 1224972676 -381258046 536959086
            -914292736 -1027525953 197863974</internalNodes>
          <leafValues>
            -6.6999965906143188e-01 3.3403769135475159e-01</leafValues></_>
        <_>
          <internalNodes>
            0 -1 15 -1942392514 -410953844 -1722497646 2136364356
            -2143067918 1744908646 16941259 -141535029</internalNodes>
          <leafValues>
            -5.3684073686599731e-01 4.1433843970298767e-01</leafValues></_>
        <_>
          <internalNodes>
            0 -1 68 953300407 786053319 285443761 -1509439099 -762423449
            -397344631 -1706334123 1823443446</internalNodes>
          <leafValues>
            -7.1544432640075684e-01 3.0990639328956604e-01</leafValues></_>
        <_>
          <internalNodes>
            0 -1 23 -1987596206 -586772282 1897447963 -585193252
            -1450596214 -1732673527 -2104456115 -174036377</internalNodes>
          <leafValues>
            -5.7848858833312988e-01 4.1255283355712891e-01</leafValues></_>
        <_>
          <internalNodes>
            0 -1 39 291217571 260194882 537006096 -1190113144 17270977
            8454313 584018371 136444248</internalNodes>
          <leafValues>
            -6.6767174005508423e-01 3.3094611763954163e-01</leafValues></_>
        <_>
          <internalNodes>
            0 -1 102 -1747440263 -1390771240 1090650392 -974176200
            1212418191 -2088140790 1082480835 -1400309584</internalNodes>
          <leafValues>
            -5.5220687389373779e-01 4.2604607343673706e-01</leafValues></_>
        <_>
          <internalNodes>
            0 -1 1 483391084 -570157675 114886 -1760505706 -1195308429
            1611239570 -1845490903 2126904167</internalNodes>
          <leafValues>
            -6.6130018234252930e-01 3.2869562506675720e-01</leafValues></_>
        <_>
          <internalNodes>
            0 -1 73 324103677 -1860513267 1627459600 -49491896 182483359
            -897539383 -1593283217 -1080659764</internalNodes>
          <leafValues>
            -5.9098422527313232e-01 4.1601797938346863e-01</leafValues></_>
        <_>
          <internalNodes>
            0 -1 44 -985624444 -113440636 -1862172583 -788185055
            -1651363004 -28835703 9517983 742457376</internalNodes>
          <leafValues>
            -6.2952667474746704e-01 3.8261041045188904e-01</leafValues></_>
        <_>
          <internalNodes>
            0 -1 48 1699277186 1129824726 86053196 -2037017599 42550061
            -989265712 30523403 1957576842</internalNodes>
          <leafValues>
            -6.6942697763442993e-01 3.4897154569625854e-01</leafValues></_></weakClassifiers></_>
    <!-- stage 7 -->
    <_>
      <maxWeakCount>18</maxWeakCount>
      <stageThreshold>-6.9527423381805420e-01</stageThreshold>
      <weakClassifiers>
        <_>
          <internalNodes>
            0 -1 89 39796213 1381931090 696404033 -79002726 -536712753
            -1953725434 715989627 -985805919</internalNodes>
          <leafValues>
            -6.0252368450164795e-01 2.9863891005516052e-01</leafValues></_>
        <_>
          <internalNodes>
            0 -1 36 1926494923 20305297 554277834 -502656877 -534060736
            -775370743 -393749400 -211824014</internalNodes>
          <leafValues>
            -5.7159399986267090e-01 3.3521723747253418e-01</leafValues></_>
        <_>
          <internalNodes>
            0 -1 62 2081482353 -1873767632 291539191 391083540
            -127974161 -854982647 939579821 1070546415</internalNodes>
          <leafValues>
            -4.7800189256668091e-01 4.2028072476387024e-01</leafValues></_>
        <_>
          <internalNodes>
            0 -1 2 -576269243 1202278724 285217252 1560346689 11791501
            -771620784 -1835157799 -2032149793</internalNodes>
          <leafValues>
            -4.6588832139968872e-01 4.6089872717857361e-01</leafValues></_>
        <_>
          <internalNodes>
            0 -1 92 294409312 -1356803534 1359036615 1359024455
            143238434 -1447361717 19891093 254515261</internalNodes>
          <leafValues>
            -6.9382679462432861e-01 2.7983838319778442e-01</leafValues></_>
        <_>
          <internalNodes>
            0 -1 56 -1980265268 848659216 1090903738 -1915731181
            1661333623 -49707768 -234714741 -183057708</internalNodes>
          <leafValues>
            -4.7368204593658447e-01 4.5135608315467834e-01</leafValues></_>
        <_>
          <internalNodes>
            0 -1 50 -673711970 106467603 -2045685602 -1369488361
            -1474286829 -1656747968 1510473993 365634706</internalNodes>
          <leafValues>
            -7.3225629329681396e-01 2.6087737083435059e-01</leafValues></_>
        <_>
          <internalNodes>
            0 -1 94 -157858794 1560875149 -779923177 1293521152
            1346945746 864624648 -99822993 -1342027766</internalNodes>
          <leafValues>
            -5.6948554515838623e-01 3.8273918628692627e-01</leafValues></_>
        <_>
          <internalNodes>
            0 -1 0 -477417978 -498835016 -1859534399 1519698758
            1095420078 -892796784 277416951 -708947657</internalNodes>
          <leafValues>
            -5.9214353561401367e-01 3.5476163029670715e-01</leafValues></_>
        <_>
          <internalNodes>
            0 -1 21 -149912947 720925 1073856606 1489899665 -1733617544
            -670691264 -1467316018 2068875299</internalNodes>
          <leafValues>
            -6.4530950784683228e-01 3.6100459098815918e-01</leafValues></_>
        <_>
          <internalNodes>
            0 -1 64 1666361965 902111246 9462475 -1077931889 60426750
            -518713207 -2104380861 562125294</internalNodes>
          <leafValues>
            -5.1101380586624146e-01 4.3313392996788025e-01</leafValues></_>
        <_>
          <internalNodes>
            0 -1 70 282322947 -296314681 -1071638510 -997143359
            -125759163 25807105 -1713239393 1322902249</internalNodes>
          <leafValues>
            -6.8004620075225830e-01 3.6625328660011292e-01</leafValues></_>
        <_>
          <internalNodes>
            0 -1 90 173265637 -1697934972 290521154 -1277123582
            1347410077 -1711224800 -1069348194 -493928411</internalNodes>
          <leafValues>
            -4.9084135890007019e-01 4.4716089963912964e-01</leafValues></_>
        <_>
          <internalNodes>
            0 -1 81 -427039030 -1790872956 167834074 -263401202
            143218865 1351721605 -2124060152 214404002</internalNodes>
          <leafValues>
            -6.6691452264785767e-01 3.4999293088912964e-01</leafValues></_>
        <_>
          <internalNodes>
            0 -1 33 2039279657 1292132608 -1877958272 -1155767550
            -762691348 -1744175104 212494769 -307652331</internalNodes>
          <leafValues>
            -4.7940567135810852e-01 4.7509157657623291e-01</leafValues></_>
        <_>
          <internalNodes>
            0 -1 74 1566344052 -1424997371 20975945 -283336307
            -2126364464 -1985966958 454084768 1231755945</internalNodes>
          <leafValues>
            -5.5472242832183838e-01 4.3824568390846252e-01</leafValues></_>
        <_>
          <internalNodes>
            0 -1 63 1153550839 340283659 285327379 -1106610047
            1095417892 -1635680126 -2130152842 1791826531</internalNodes>
          <leafValues>
            -5.8467227220535278e-01 3.8188081979751587e-01</leafValues></_>
        <_>
          <internalNodes>
            0 -1 97 -1778343846 -2063466284 1435242844 -116498293
            -2134893762 -1870561151 -1958049245 -1222906479</internalNodes>
          <leafValues>
            -4.9718078970909119e-01 4.6437630057334900e-01</leafValues></_></weakClassifiers></_></stages>
  <features>
    <_>
      <rect>
        0 0 6 6</rect></_>
    <_>
      <rect>
        0 0 7 16</rect></_>
    <_>
      <rect>
        0 13 14 24</rect></_>
    <_>
      <rect>
        0 17 7 21</rect></_>
    <_>
      <rect>
        0 18 11 23</rect></_>
    <_>
      <rect>
        0 29 15 14</rect></_>
    <_>
      <rect>
        0 37 3 7</rect></_>
    <_>
      <rect>
        0 49 8 7</rect></_>
    <_>
      <rect>
        0 76 11 8</rect></_>
    <_>
      <rect>
        0 83 6 5</rect></_>
    <_>
      <rect>
        1 0 15 21</rect></_>
    <_>
      <rect>
        1 1 9 5</rect></_>
    <_>
      <rect>
        1 3 9 7</rect></_>
    <_>
      <rect>
        1 6 10 6</rect></_>
    <_>
      <rect>
        1 8 16 25</rect></_>
    <_>
      <rect>
        1 26 13 23</rect></_>
    <_>
      <rect>
        1 33 13 8</rect></_>
    <_>
      <rect>
        1 46 9 8</rect></_>
    <_>
      <rect>
        2 0 16 20</rect></_>
    <_>
      <rect>
        2 3 15 8</rect></_>
    <_>
      <rect>
        2 57 8 14</rect></_>
    <_>
      <rect>
        2 84 7 4</rect></_>
    <_>
      <rect>
        3 27 5 7</rect></_>
    <_>
      <rect>
        5 0 10 7</rect></_>
    <_>
      <rect>
        5 12 15 27</rect></_>
    <_>
      <rect>
        5 29 15 13</rect></_>
    <_>
      <rect>
        6 0 7 16</rect></_>
    <_>
      <rect>
        6 51 5 4</rect></_>
    <_>
      <rect>
        6 55 4 3</rect></_>
    <_>
      <rect>
        6 85 7 5</rect></_>
    <_>
      <rect>
        7 75 13 8</rect></_>
    <_>
      <rect>
        8 62 3 4</rect></_>
    <_>
      <rect>
        9 32 4 5</rect></_>
    <_>
      <rect>
        10 18 2 3</rect></_>
    <_>
      <rect>
        10 32 4 10</rect></_>
    <_>
      <rect>
        11 16 13 25</rect></_>
    <_>
      <rect>
        11 32 5 7</rect></_>
    <_>
      <rect>
        11 38 4 10</rect></_>
    <_>
      <rect>
        11 91 3 1</rect></_>
    <_>
      <rect>
        12 44 4 12</rect></_>
    <_>
      <rect>
        12 52 5 7</rect></_>
    <_>
      <rect>
        12 90 5 3</rect></_>
    <_>
      <rect>
        13 15 7 11</rect></_>
    <_>
      <rect>
        14 0 5 4</rect></_>
    <_>
      <rect>
        14 2 6 3</rect></_>
    <_>
      <rect>
        14 9 11 25</rect></_>
    <_>
      <rect>
        15 0 11 9</rect></_>
    <_>
      <rect>
        15 12 5 6</rect></_>
    <_>
      <rect>
        15 14 8 18</rect></_>
    <_>
      <rect>
        17 17 11 23</rect></_>
    <_>
      <rect>
        17 64 7 7</rect></_>
    <_>
      <rect>
        17 76 7 8</rect></_>
    <_>
      <rect>
        17 87 2 4</rect></_>
    <_>
      <rect>
        17 88 4 4</rect></_>
    <_>
      <rect>
        18 3 6 3</rect></_>
    <_>
      <rect>
        18 19 10 22</rect></_>
    <_>
      <rect>
        18 25 7 18</rect></_>
    <_>
      <rect>
        18 84 9 5</rect></_>
    <_>
      <rect>
        19 0 7 7</rect></_>
    <_>
      <rect>
        19 1 5 4</rect></_>
    <_>
      <rect>
        19 90 6 3</rect></_>
    <_>
      <rect>
        20 4 3 2</rect></_>
    <_>
      <rect>
        20 10 4 7</rect></_>
    <_>
      <rect>
        20 31 3 13</rect></_>
    <_>
      <rect>
        20 31 7 12</rect></_>
    <_>
      <rect>
        20 33 5 19</rect></_>
    <_>
      <rect>
        20 42 9 5</rect></_>
    <_>
      <rect>
        21 2 6 5</rect></_>
    <_>
      <rect>
        21 36 3 9</rect></_>
    <_>
      <rect>
        22 61 6 11</rect></_>
    <_>
      <rect>
        23 0 9 27</rect></_>
    <_>
      <rect>
        23 25 5 13</rect></_>
    <_>
      <rect>
        23 31 9 14</rect></_>
    <_>
      <rect>
        23 84 3 4</rect></_>
    <_>
      <rect>
        23 91 9 3</rect></_>
    <_>
      <rect>
        25 28 5 10</rect></_>
    <_>
      <rect>
        25 36 3 3</rect></_>
    <_>
      <rect>
        25 88 4 4</rect></_>
    <_>
      <rect>
        26 17 7 22</rect></_>
    <_>
      <rect>
        26 26 5 16</rect></_>
    <_>
      <rect>
        26 79 5 7</rect></_>
    <_>
      <rect>
        27 58 5 12</rect></_>
    <_>
      <rect>
        27 85 4 5</rect></_>
    <_>
      <rect>
        28 0 6 13</rect></_>
    <_>
      <rect>
        28 6 5 11</rect></_>
    <_>
      <rect>
        28 7 7 9</rect></_>
    <_>
      <rect>
        28 54 6 2</rect></_>
    <_>
      <rect>
        28 54 7 15</rect></_>
    <_>
      <rect>
        28 55 5 5</rect></_>
    <_>
      <rect>
        29 26 5 13</rect></_>
    <_>
      <rect>
        29 36 3 9</rect></_>
    <_>
      <rect>
        29 37 4 12</rect></_>
    <_>
      <rect>
        29 85 3 2</rect></_>
    <_>
      <rect>
        29 91 6 3</rect></_>
    <_>
      <rect>
        31 3 4 5</rect></_>
    <_>
      <rect>
        31 50 4 6</rect></_>
    <_>
      <rect>
        31 56 5 6</rect></_>
    <_>
      <rect>
        31 88 1 1</rect></_>
    <_>
      <rect>
        32 24 3 15</rect></_>
    <_>
      <rect>
        32 72 5 8</rect></_>
    <_>
      <rect>
        32 81 5 6</rect></_>
    <_>
      <rect>
        34 61 4 4</rect></_>
    <_>
      <rect>
        37 34 4 6</rect></_>
    <_>
      <rect>
        38 44 2 4</rect></_>
    <_>
      <rect>
        41 33 3 8</rect></_>
    <_>
      <rect>
        41 64 3 11</rect></_></features></cascade>
</opencv_storage>
